<?xml version="1.0"?>
<opencv_storage>
<cascade>
  <stageType>BOOST</stageType>
  <featureType>HOG</featureType>
  <height>20</height>
  <width>20</width>
  <stageParams>
    <boostType>GAB</boostType>
    <minHitRate>9.9500000476837158e-01</minHitRate>
    <maxFalseAlarm>5.0000000000000000e-01</maxFalseAlarm>
    <weightTrimRate>9.4999999999999996e-01</weightTrimRate>
    <maxDepth>1</maxDepth>
    <maxWeakCount>100</maxWeakCount></stageParams>
  <featureParams>
    <maxCatCount>0</maxCatCount>
    <featSize>36</featSize></featureParams>
  <stageNum>7</stageNum>
  <stages>
    <!-- stage 0 -->
    <_>
      <maxWeakCount>5</maxWeakCount>
      <stageThreshold>-1.7447803020477295e+00</stageThreshold>
      <weakClassifiers>
        <_>
          <internalNodes>
            0 -1 12 5.5740803480148315e-02</internalNodes>
          <leafValues>
            -8.0412709712982178e-01 8.2089549303054810e-01</leafValues></_>
        <_>
          <internalNodes>
            0 -1 20 5.1006212830543518e-02</internalNodes>
          <leafValues>
            -7.8012114763259888e-01 7.8748154640197754e-01</leafValues></_>
        <_>
          <internalNodes>
            0 -1 9 2.5428898632526398e-02</internalNodes>
          <leafValues>
            -5.9643274545669556e-01 7.5709074735641479e-01</leafValues></_>
        <_>
          <internalNodes>
            0 -1 14 2.5265770033001900e-02</internalNodes>
          <leafValues>
            5.0746440887451172e-01 -7.5096833705902100e-01</leafValues></_>
        <_>
          <internalNodes>
            0 -1 21 4.4423136860132217e-02</internalNodes>
          <leafValues>
            -4.3815353512763977e-01 7.3082458972930908e-01</leafValues></_></weakClassifiers></_>
    <!-- stage 1 -->
    <_>
      <maxWeakCount>5</maxWeakCount>
      <stageThreshold>-1.2575358152389526e+00</stageThreshold>
      <weakClassifiers>
        <_>
          <internalNodes>
            0 -1 20 4.4182263314723969e-02</internalNodes>
          <leafValues>
            -8.4478020668029785e-01 7.8254848718643188e-01</leafValues></_>
        <_>
          <internalNodes>
            0 -1 17 3.5474132746458054e-02</internalNodes>
          <leafValues>
            -6.2470859289169312e-01 6.3021528720855713e-01</leafValues></_>
        <_>
          <internalNodes>
            0 -1 23 2.1949933841824532e-02</internalNodes>
          <leafValues>
            3.7422382831573486e-01 -6.9839382171630859e-01</leafValues></_>
        <_>
          <internalNodes>
            0 -1 21 1.4932808466255665e-02</internalNodes>
          <leafValues>
            -7.1497684717178345e-01 3.3815261721611023e-01</leafValues></_>
        <_>
          <internalNodes>
            0 -1 5 4.6513184905052185e-02</internalNodes>
          <leafValues>
            -4.8341503739356995e-01 5.7219415903091431e-01</leafValues></_></weakClassifiers></_>
    <!-- stage 2 -->
    <_>
      <maxWeakCount>6</maxWeakCount>
      <stageThreshold>-1.1886087656021118e+00</stageThreshold>
      <weakClassifiers>
        <_>
          <internalNodes>
            0 -1 20 7.5056217610836029e-02</internalNodes>
          <leafValues>
            -5.9782296419143677e-01 8.1723690032958984e-01</leafValues></_>
        <_>
          <internalNodes>
            0 -1 12 7.8087344765663147e-02</internalNodes>
          <leafValues>
            -6.2465143203735352e-01 7.7690225839614868e-01</leafValues></_>
        <_>
          <internalNodes>
            0 -1 14 1.2045156210660934e-02</internalNodes>
          <leafValues>
            6.5986013412475586e-01 -4.8215571045875549e-01</leafValues></_>
        <_>
          <internalNodes>
            0 -1 11 5.4733697324991226e-03</internalNodes>
          <leafValues>
            5.7663023471832275e-01 -4.6181330084800720e-01</leafValues></_>
        <_>
          <internalNodes>
            0 -1 8 1.2064089998602867e-02</internalNodes>
          <leafValues>
            5.4572957754135132e-01 -4.4444048404693604e-01</leafValues></_>
        <_>
          <internalNodes>
            0 -1 20 4.1233152151107788e-02</internalNodes>
          <leafValues>
            -6.0633850097656250e-01 4.3314629793167114e-01</leafValues></_></weakClassifiers></_>
    <!-- stage 3 -->
    <_>
      <maxWeakCount>6</maxWeakCount>
      <stageThreshold>-9.7247052192687988e-01</stageThreshold>
      <weakClassifiers>
        <_>
          <internalNodes>
            0 -1 13 1.0628493502736092e-02</internalNodes>
          <leafValues>
            7.5088649988174438e-01 -5.3442436456680298e-01</leafValues></_>
        <_>
          <internalNodes>
            0 -1 16 2.5151582434773445e-02</internalNodes>
          <leafValues>
            4.5822733640670776e-01 -7.0274692773818970e-01</leafValues></_>
        <_>
          <internalNodes>
            0 -1 20 9.4121523201465607e-02</internalNodes>
          <leafValues>
            -4.1875797510147095e-01 7.4010753631591797e-01</leafValues></_>
        <_>
          <internalNodes>
            0 -1 9 3.2058607786893845e-02</internalNodes>
          <leafValues>
            -4.4511088728904724e-01 5.1403629779815674e-01</leafValues></_>
        <_>
          <internalNodes>
            0 -1 12 6.7291557788848877e-02</internalNodes>
          <leafValues>
            -5.0045096874237061e-01 5.3575527667999268e-01</leafValues></_>
        <_>
          <internalNodes>
            0 -1 21 5.1639795303344727e-02</internalNodes>
          <leafValues>
            -4.3531545996665955e-01 6.6987347602844238e-01</leafValues></_></weakClassifiers></_>
    <!-- stage 4 -->
    <_>
      <maxWeakCount>9</maxWeakCount>
      <stageThreshold>-1.0039647817611694e+00</stageThreshold>
      <weakClassifiers>
        <_>
          <internalNodes>
            0 -1 3 8.7300781160593033e-03</internalNodes>
          <leafValues>
            6.8218708038330078e-01 -5.1951432228088379e-01</leafValues></_>
        <_>
          <internalNodes>
            0 -1 12 4.9082979559898376e-02</internalNodes>
          <leafValues>
            -6.3788527250289917e-01 4.1714921593666077e-01</leafValues></_>
        <_>
          <internalNodes>
            0 -1 20 6.1125200241804123e-02</internalNodes>
          <leafValues>
            -6.0690748691558838e-01 3.7451630830764771e-01</leafValues></_>
        <_>
          <internalNodes>
            0 -1 9 4.0555089712142944e-02</internalNodes>
          <leafValues>
            -4.3522325158119202e-01 5.9904789924621582e-01</leafValues></_>
        <_>
          <internalNodes>
            0 -1 5 4.1798725724220276e-02</internalNodes>
          <leafValues>
            -4.1411548852920532e-01 5.4527461528778076e-01</leafValues></_>
        <_>
          <internalNodes>
            0 -1 18 2.7702419087290764e-02</internalNodes>
          <leafValues>
            -3.9916235208511353e-01 6.2037730216979980e-01</leafValues></_>
        <_>
          <internalNodes>
            0 -1 12 1.0627123713493347e-01</internalNodes>
          <leafValues>
            -2.7594518661499023e-01 7.9180836677551270e-01</leafValues></_>
        <_>
          <internalNodes>
            0 -1 16 1.1641582474112511e-02</internalNodes>
          <leafValues>
            6.4081352949142456e-01 -2.7694240212440491e-01</leafValues></_>
        <_>
          <internalNodes>
            0 -1 6 5.8197408914566040e-02</internalNodes>
          <leafValues>
            -2.9577320814132690e-01 6.2443542480468750e-01</leafValues></_></weakClassifiers></_>
    <!-- stage 5 -->
    <_>
      <maxWeakCount>10</maxWeakCount>
      <stageThreshold>-1.2407195568084717e+00</stageThreshold>
      <weakClassifiers>
        <_>
          <internalNodes>
            0 -1 2 9.1557718813419342e-02</internalNodes>
          <leafValues>
            -3.8724881410598755e-01 7.6936119794845581e-01</leafValues></_>
        <_>
          <internalNodes>
            0 -1 9 1.8883250653743744e-02</internalNodes>
          <leafValues>
            -5.6758970022201538e-01 4.0120345354080200e-01</leafValues></_>
        <_>
          <internalNodes>
            0 -1 1 3.5353802144527435e-02</internalNodes>
          <leafValues>
            -4.4903481006622314e-01 4.3815144896507263e-01</leafValues></_>
        <_>
          <internalNodes>
            0 -1 20 4.9641132354736328e-02</internalNodes>
          <leafValues>
            -6.7108887434005737e-01 2.1646289527416229e-01</leafValues></_>
        <_>
          <internalNodes>
            0 -1 23 1.9088227301836014e-02</internalNodes>
          <leafValues>
            3.3928740024566650e-01 -5.7371717691421509e-01</leafValues></_>
        <_>
          <internalNodes>
            0 -1 5 8.5473284125328064e-02</internalNodes>
          <leafValues>
            -2.8844878077507019e-01 7.5550538301467896e-01</leafValues></_>
        <_>
          <internalNodes>
            0 -1 7 9.9348556250333786e-03</internalNodes>
          <leafValues>
            5.1760417222976685e-01 -3.1226718425750732e-01</leafValues></_>
        <_>
          <internalNodes>
            0 -1 22 1.8914307293016464e-04</internalNodes>
          <leafValues>
            -8.8351261615753174e-01 1.4346928894519806e-01</leafValues></_>
        <_>
          <internalNodes>
            0 -1 12 7.8124731779098511e-02</internalNodes>
          <leafValues>
            -4.1286057233810425e-01 4.1266810894012451e-01</leafValues></_>
        <_>
          <internalNodes>
            0 -1 18 4.1232153773307800e-02</internalNodes>
          <leafValues>
            -2.6401084661483765e-01 5.6300979852676392e-01</leafValues></_></weakClassifiers></_>
    <!-- stage 6 -->
    <_>
      <maxWeakCount>12</maxWeakCount>
      <stageThreshold>-1.4164317846298218e+00</stageThreshold>
      <weakClassifiers>
        <_>
          <internalNodes>
            0 -1 4 3.2488778233528137e-03</internalNodes>
          <leafValues>
            7.0848149061203003e-01 -4.1634038090705872e-01</leafValues></_>
        <_>
          <internalNodes>
            0 -1 17 3.5646915435791016e-02</internalNodes>
          <leafValues>
            -5.0016170740127563e-01 4.2833822965621948e-01</leafValues></_>
        <_>
          <internalNodes>
            0 -1 20 8.4158718585968018e-02</internalNodes>
          <leafValues>
            -3.6868634819984436e-01 4.6600747108459473e-01</leafValues></_>
        <_>
          <internalNodes>
            0 -1 5 5.7165782898664474e-02</internalNodes>
          <leafValues>
            -3.2503291964530945e-01 4.9533745646476746e-01</leafValues></_>
        <_>
          <internalNodes>
            0 -1 23 2.5727564468979836e-02</internalNodes>
          <leafValues>
            1.8279102444648743e-01 -7.6482987403869629e-01</leafValues></_>
        <_>
          <internalNodes>
            0 -1 0 1.4277419541031122e-04</internalNodes>
          <leafValues>
            -8.6904525756835938e-01 1.5640684962272644e-01</leafValues></_>
        <_>
          <internalNodes>
            0 -1 12 6.2776669859886169e-02</internalNodes>
          <leafValues>
            -4.7636947035789490e-01 2.4675448238849640e-01</leafValues></_>
        <_>
          <internalNodes>
            0 -1 21 1.3213077560067177e-02</internalNodes>
          <leafValues>
            -7.7283656597137451e-01 1.6201652586460114e-01</leafValues></_>
        <_>
          <internalNodes>
            0 -1 9 4.7708824276924133e-02</internalNodes>
          <leafValues>
            -3.3883786201477051e-01 3.8698181509971619e-01</leafValues></_>
        <_>
          <internalNodes>
            0 -1 15 1.5881434082984924e-02</internalNodes>
          <leafValues>
            4.3585774302482605e-01 -2.5817799568176270e-01</leafValues></_>
        <_>
          <internalNodes>
            0 -1 19 7.2367945685982704e-03</internalNodes>
          <leafValues>
            4.6197408437728882e-01 -1.9999253749847412e-01</leafValues></_>
        <_>
          <internalNodes>
            0 -1 10 9.0186353772878647e-03</internalNodes>
          <leafValues>
            2.4918223917484283e-01 -3.6723977327346802e-01</leafValues></_></weakClassifiers></_></stages>
  <features>
    <_>
      <rect>
        0 0 8 8 12</rect></_>
    <_>
      <rect>
        0 0 8 8 14</rect></_>
    <_>
      <rect>
        0 0 8 8 26</rect></_>
    <_>
      <rect>
        0 0 8 8 31</rect></_>
    <_>
      <rect>
        0 4 8 8 10</rect></_>
    <_>
      <rect>
        0 4 8 8 24</rect></_>
    <_>
      <rect>
        0 4 8 8 29</rect></_>
    <_>
      <rect>
        0 4 8 8 33</rect></_>
    <_>
      <rect>
        0 4 8 8 35</rect></_>
    <_>
      <rect>
        4 0 8 8 3</rect></_>
    <_>
      <rect>
        4 0 8 8 9</rect></_>
    <_>
      <rect>
        4 0 8 8 10</rect></_>
    <_>
      <rect>
        4 0 8 8 15</rect></_>
    <_>
      <rect>
        4 0 8 8 22</rect></_>
    <_>
      <rect>
        4 0 8 8 31</rect></_>
    <_>
      <rect>
        4 4 8 8 4</rect></_>
    <_>
      <rect>
        4 4 8 8 13</rect></_>
    <_>
      <rect>
        4 4 8 8 16</rect></_>
    <_>
      <rect>
        4 4 8 8 21</rect></_>
    <_>
      <rect>
        4 4 8 8 26</rect></_>
    <_>
      <rect>
        4 4 8 8 28</rect></_>
    <_>
      <rect>
        4 4 8 8 29</rect></_>
    <_>
      <rect>
        4 4 8 8 30</rect></_>
    <_>
      <rect>
        4 4 8 8 31</rect></_></features></cascade>
</opencv_storage>
