<?xml version="1.0"?>
<opencv_storage>
<cascade>
  <stageType>BOOST</stageType>
  <featureType>LBP</featureType>
  <height>20</height>
  <width>20</width>
  <stageParams>
    <boostType>GAB</boostType>
    <minHitRate>9.9500000476837158e-01</minHitRate>
    <maxFalseAlarm>5.0000000000000000e-01</maxFalseAlarm>
    <weightTrimRate>9.4999999999999996e-01</weightTrimRate>
    <maxDepth>1</maxDepth>
    <maxWeakCount>100</maxWeakCount></stageParams>
  <featureParams>
    <maxCatCount>256</maxCatCount>
    <featSize>1</featSize></featureParams>
  <stageNum>13</stageNum>
  <stages>
    <!-- stage 0 -->
    <_>
      <maxWeakCount>4</maxWeakCount>
      <stageThreshold>-1.4866079092025757e+00</stageThreshold>
      <weakClassifiers>
        <_>
          <internalNodes>
            0 -1 13 -2097153 -10628097 -145097731 -12583973 -71565825
            -7864949 -544220773 933231551</internalNodes>
          <leafValues>
            -8.1108313798904419e-01 7.1378093957901001e-01</leafValues></_>
        <_>
          <internalNodes>
            0 -1 48 -8923301 -545292450 -65537 -547389441 -75497638
            -17039489 -84156417 -75497601</internalNodes>
          <leafValues>
            -5.9603577852249146e-01 8.0622291564941406e-01</leafValues></_>
        <_>
          <internalNodes>
            0 -1 62 -1142950944 -1559310334 -746471280 -134491712
            -2121543520 -1576861694 -610610960 -5257199</internalNodes>
          <leafValues>
            -6.6402161121368408e-01 6.2817138433456421e-01</leafValues></_>
        <_>
          <internalNodes>
            0 -1 52 -2218 -572524212 -1874209921 -52694050 -220542400
            -1416985918 -524096918 -1067189265</internalNodes>
          <leafValues>
            -6.4933627843856812e-01 5.8453255891799927e-01</leafValues></_></weakClassifiers></_>
    <!-- stage 1 -->
    <_>
      <maxWeakCount>5</maxWeakCount>
      <stageThreshold>-1.0076258182525635e+00</stageThreshold>
      <weakClassifiers>
        <_>
          <internalNodes>
            0 -1 14 -1 -8519689 -250750629 -12583969 -5506085 2138429437
            -3933768 1066400703</internalNodes>
          <leafValues>
            -8.0826270580291748e-01 6.1243385076522827e-01</leafValues></_>
        <_>
          <internalNodes>
            0 -1 56 -13 -6180126 -570425423 -671107600 -33554435
            -805371913 1568527861 -538968065</internalNodes>
          <leafValues>
            -6.1687368154525757e-01 7.5586396455764771e-01</leafValues></_>
        <_>
          <internalNodes>
            0 -1 25 -2228452 -2231334 -398420515 -276301379 -11535370
            -1145317185 -24314966 12563135</internalNodes>
          <leafValues>
            -8.0107808113098145e-01 4.4173279404640198e-01</leafValues></_>
        <_>
          <internalNodes>
            0 -1 65 -32766 -614526949 1879064651 1880752259 -217859584
            2013790218 -343168327 -88869969</internalNodes>
          <leafValues>
            -5.7910317182540894e-01 5.8213967084884644e-01</leafValues></_>
        <_>
          <internalNodes>
            0 -1 68 -1113849921 -1079255044 -1073807363 -549980196
            -1090519045 -1342439426 519404985 -545274480</internalNodes>
          <leafValues>
            -5.3906911611557007e-01 6.3644897937774658e-01</leafValues></_></weakClassifiers></_>
    <!-- stage 2 -->
    <_>
      <maxWeakCount>5</maxWeakCount>
      <stageThreshold>-1.2434952259063721e+00</stageThreshold>
      <weakClassifiers>
        <_>
          <internalNodes>
            0 -1 43 -73722859 -36277 -257 -4227202 -4792370 -32897
            -217382913 -79955009</internalNodes>
          <leafValues>
            -6.9640356302261353e-01 7.0770454406738281e-01</leafValues></_>
        <_>
          <internalNodes>
            0 -1 3 -276824105 -2099202 -710946561 -200353 -805568521
            -2623001 -68290639 -143182030</internalNodes>
          <leafValues>
            -6.4590662717819214e-01 6.1060309410095215e-01</leafValues></_>
        <_>
          <internalNodes>
            0 -1 39 -614597648 -1347977020 -715530320 -672138801
            -341245956 -1952857415 1334964597 -1610613763</internalNodes>
          <leafValues>
            -7.2737413644790649e-01 4.8161160945892334e-01</leafValues></_>
        <_>
          <internalNodes>
            0 -1 36 -2621620 -4021 -29116834 1587535607 -2366774
            -206654787 -1425417506 444595037</internalNodes>
          <leafValues>
            -7.4089598655700684e-01 4.1127359867095947e-01</leafValues></_>
        <_>
          <internalNodes>
            0 -1 22 -285766646 -26155 1443942630 -1130507937 -72680838
            -360737624 1527380911 -1069047827</internalNodes>
          <leafValues>
            -7.2363489866256714e-01 4.1491544246673584e-01</leafValues></_></weakClassifiers></_>
    <!-- stage 3 -->
    <_>
      <maxWeakCount>5</maxWeakCount>
      <stageThreshold>-1.1926743984222412e+00</stageThreshold>
      <weakClassifiers>
        <_>
          <internalNodes>
            0 -1 49 -42401 -8481 -17825793 -2097697 -67110193 -1
            -67239937 -547356673</internalNodes>
          <leafValues>
            -6.6096353530883789e-01 7.3621714115142822e-01</leafValues></_>
        <_>
          <internalNodes>
            0 -1 0 -1348534417 -2164822 -640884739 -67109072 -74458265
            -13894741 -6491537 -78579968</internalNodes>
          <leafValues>
            -7.7028369903564453e-01 5.0342464447021484e-01</leafValues></_>
        <_>
          <internalNodes>
            0 -1 42 -97257478 -1345326686 -553537296 -134673922
            -1207844943 -1961041768 1963618804 -805309955</internalNodes>
          <leafValues>
            -6.9664901494979858e-01 4.6528273820877075e-01</leafValues></_>
        <_>
          <internalNodes>
            0 -1 23 1593966589 799014333 1834998611 -67461313 2003795797
            837709247 661350911 2080334843</internalNodes>
          <leafValues>
            -7.3915511369705200e-01 4.1823494434356689e-01</leafValues></_>
        <_>
          <internalNodes>
            0 -1 45 -119803311 -1077034806 1342278655 1922011486
            -1693718528 -83197951 -1190515779 -71587393</internalNodes>
          <leafValues>
            -5.6500232219696045e-01 5.1698696613311768e-01</leafValues></_></weakClassifiers></_>
    <!-- stage 4 -->
    <_>
      <maxWeakCount>5</maxWeakCount>
      <stageThreshold>-1.9498862028121948e+00</stageThreshold>
      <weakClassifiers>
        <_>
          <internalNodes>
            0 -1 63 -43433 -203466211 1350812127 -144747941 -141829205
            -346406551 -171705345 -79959073</internalNodes>
          <leafValues>
            -6.9999998807907104e-01 5.8985507488250732e-01</leafValues></_>
        <_>
          <internalNodes>
            0 -1 54 -1080033286 -1617171496 -531828546 244252377
            2044719988 -905655680 -84419016 -540017157</internalNodes>
          <leafValues>
            -6.8532371520996094e-01 4.7484582662582397e-01</leafValues></_>
        <_>
          <internalNodes>
            0 -1 30 -1077936161 455597778 1439039466 -1884293638
            -136316422 -1107299395 -144711246 -1077938757</internalNodes>
          <leafValues>
            -6.2027794122695923e-01 4.8064401745796204e-01</leafValues></_>
        <_>
          <internalNodes>
            0 -1 15 -153466788 -161587172 -628977446 -230260514
            -343721108 -125173728 -337974328 -75502646</internalNodes>
          <leafValues>
            -5.6647533178329468e-01 5.3345525264739990e-01</leafValues></_>
        <_>
          <internalNodes>
            0 -1 47 -568635312 -141868991 -200753025 2117799955
            -1711238774 -936902648 -637361174 -217445512</internalNodes>
          <leafValues>
            -5.3797876834869385e-01 5.3742712736129761e-01</leafValues></_></weakClassifiers></_>
    <!-- stage 5 -->
    <_>
      <maxWeakCount>5</maxWeakCount>
      <stageThreshold>-1.9302604198455811e+00</stageThreshold>
      <weakClassifiers>
        <_>
          <internalNodes>
            0 -1 6 -4097 -4097 -8519681 -196609 -805318657 -65 -1
            -134217729</internalNodes>
          <leafValues>
            -6.2786477804183960e-01 6.5482658147811890e-01</leafValues></_>
        <_>
          <internalNodes>
            0 -1 64 -554181077 -8392833 1929347070 1929379583 -536876288
            -8421513 -8669187 -67379201</internalNodes>
          <leafValues>
            -5.3133445978164673e-01 6.1248600482940674e-01</leafValues></_>
        <_>
          <internalNodes>
            0 -1 55 -82051078 -1281165648 -622862344 -1764753416
            1054866161 -1309938533 -606744075 -536870923</internalNodes>
          <leafValues>
            -6.4657366275787354e-01 4.7121241688728333e-01</leafValues></_>
        <_>
          <internalNodes>
            0 -1 9 -136686370 -1082883 2070081746 2130729880 2140755032
            1535844891 1591403514 -143475201</internalNodes>
          <leafValues>
            -6.6029238700866699e-01 4.4173651933670044e-01</leafValues></_>
        <_>
          <internalNodes>
            0 -1 34 -1210057122 -1275989456 -594029857 -90180641
            -74777910 -22302286 -565282817 1589112309</internalNodes>
          <leafValues>
            -6.0801553726196289e-01 4.8844310641288757e-01</leafValues></_></weakClassifiers></_>
    <!-- stage 6 -->
    <_>
      <maxWeakCount>5</maxWeakCount>
      <stageThreshold>-1.1228194236755371e+00</stageThreshold>
      <weakClassifiers>
        <_>
          <internalNodes>
            0 -1 44 -9633 -772 -16777217 -2106147 -85984561 -16785409
            -620756993 -2097185</internalNodes>
          <leafValues>
            -6.0035097599029541e-01 6.8585455417633057e-01</leafValues></_>
        <_>
          <internalNodes>
            0 -1 26 -1077035683 -1075863553 -551688229 -16948227
            -8388673 -70270260 2132803311 -187393132</internalNodes>
          <leafValues>
            -7.1127623319625854e-01 4.5138970017433167e-01</leafValues></_>
        <_>
          <internalNodes>
            0 -1 60 -1083508226 -73736688 -1055240035 -249863688
            999289736 -1022984184 453106152 -545269255</internalNodes>
          <leafValues>
            -6.5025144815444946e-01 4.5898187160491943e-01</leafValues></_>
        <_>
          <internalNodes>
            0 -1 7 -270643970 -1147806765 -715981826 -40699043 -70288484
            -70393649 -134317058 -1346634819</internalNodes>
          <leafValues>
            -6.4383608102798462e-01 4.3666228652000427e-01</leafValues></_>
        <_>
          <internalNodes>
            0 -1 12 -812646886 -1084272181 -603202081 -27277889 -3417138
            203990426 -4211729 855078141</internalNodes>
          <leafValues>
            -7.1745854616165161e-01 4.0239697694778442e-01</leafValues></_></weakClassifiers></_>
    <!-- stage 7 -->
    <_>
      <maxWeakCount>5</maxWeakCount>
      <stageThreshold>-1.1925684213638306e+00</stageThreshold>
      <weakClassifiers>
        <_>
          <internalNodes>
            0 -1 40 -92078080 -13959037 -787750717 -2420709 -1574205781
            -1148551158 -1165827397 -1088728385</internalNodes>
          <leafValues>
            -6.9819015264511108e-01 5.3493219614028931e-01</leafValues></_>
        <_>
          <internalNodes>
            0 -1 33 -205521928 598670314 -607528355 2136949406
            -226263175 -69748583 1309360013 -1141173249</internalNodes>
          <leafValues>
            -7.0408892631530762e-01 4.2459645867347717e-01</leafValues></_>
        <_>
          <internalNodes>
            0 -1 61 -1289751809 -1182076904 -2128357031 -4200392
            -1425476711 -1685416950 923527371 -605037127</internalNodes>
          <leafValues>
            -5.6853264570236206e-01 4.8593258857727051e-01</leafValues></_>
        <_>
          <internalNodes>
            0 -1 53 -69733562 -1847594754 -801017345 -121128001
            -27264444 -1480081246 1350565439 -722077713</internalNodes>
          <leafValues>
            -6.5587103366851807e-01 4.6118021011352539e-01</leafValues></_>
        <_>
          <internalNodes>
            0 -1 2 -1886721237 -134226518 -666644097 1071503667
            1334573879 -73451493 -286876937 -95110368</internalNodes>
          <leafValues>
            -7.0267105102539063e-01 3.7964916229248047e-01</leafValues></_></weakClassifiers></_>
    <!-- stage 8 -->
    <_>
      <maxWeakCount>5</maxWeakCount>
      <stageThreshold>-1.6325851678848267e+00</stageThreshold>
      <weakClassifiers>
        <_>
          <internalNodes>
            0 -1 48 -165 -8389542 -1 -545259521 -258 -17041281 -17039361
            -69206017</internalNodes>
          <leafValues>
            -5.9744828939437866e-01 6.7258208990097046e-01</leafValues></_>
        <_>
          <internalNodes>
            0 -1 58 -809566750 -35193160 -268435471 -671088644
            -1086456359 -813694992 527925245 -41475</internalNodes>
          <leafValues>
            -5.1145106554031372e-01 5.9400707483291626e-01</leafValues></_>
        <_>
          <internalNodes>
            0 -1 38 1975516159 -1582628902 -611393640 -269495366
            2086654973 328188103 1568659829 -536879617</internalNodes>
          <leafValues>
            -5.4333460330963135e-01 5.4433423280715942e-01</leafValues></_>
        <_>
          <internalNodes>
            0 -1 5 -276833028 -649083915 -770837931 -1481212929
            1903844213 -129283349 -275906572 -1086891145</internalNodes>
          <leafValues>
            -6.6647815704345703e-01 3.8500142097473145e-01</leafValues></_>
        <_>
          <internalNodes>
            0 -1 16 -738296226 -271195941 -62613318 1065395473 506347612
            2072764548 -703444808 -545521685</internalNodes>
          <leafValues>
            -5.8390343189239502e-01 4.3192154169082642e-01</leafValues></_></weakClassifiers></_>
    <!-- stage 9 -->
    <_>
      <maxWeakCount>7</maxWeakCount>
      <stageThreshold>-1.1732088327407837e+00</stageThreshold>
      <weakClassifiers>
        <_>
          <internalNodes>
            0 -1 31 -2761221 -71478887 2000753103 -292554457 -103163426
            -1616928679 -112460805 -542113873</internalNodes>
          <leafValues>
            -6.5249997377395630e-01 5.0357145071029663e-01</leafValues></_>
        <_>
          <internalNodes>
            0 -1 28 -589623296 -11382699 344019161 -12733985 -73336134
            -1154412367 -1207199009 168790699</internalNodes>
          <leafValues>
            -6.4176058769226074e-01 4.2474302649497986e-01</leafValues></_>
        <_>
          <internalNodes>
            0 -1 57 -539231749 -1920892468 407229907 -136357475
            -1433887839 -2003205998 1435492855 -539231489</internalNodes>
          <leafValues>
            -5.6025880575180054e-01 4.6645325422286987e-01</leafValues></_>
        <_>
          <internalNodes>
            0 -1 20 -94371874 -423489398 -551428770 -36687790 968520538
            503843370 -1148808276 2074020282</internalNodes>
          <leafValues>
            -6.8576204776763916e-01 3.6413559317588806e-01</leafValues></_>
        <_>
          <internalNodes>
            0 -1 1 -436211458 -139464194 -796667689 1073666399 994757311
            -70526753 -2109366018 -1208520153</internalNodes>
          <leafValues>
            -5.3949677944183350e-01 4.7476622462272644e-01</leafValues></_>
        <_>
          <internalNodes>
            0 -1 46 -1567885390 -478129904 -251440687 -139865984
            -2127986783 -477622080 2013507888 -239374204</internalNodes>
          <leafValues>
            -5.7445585727691650e-01 4.4062960147857666e-01</leafValues></_>
        <_>
          <internalNodes>
            0 -1 37 -2369466 -620081133 -787008295 -636332069
            -1290083766 -167583701 -1709517909 -1237853195</internalNodes>
          <leafValues>
            -6.0844707489013672e-01 4.1686460375785828e-01</leafValues></_></weakClassifiers></_>
    <!-- stage 10 -->
    <_>
      <maxWeakCount>7</maxWeakCount>
      <stageThreshold>-1.3264412879943848e+00</stageThreshold>
      <weakClassifiers>
        <_>
          <internalNodes>
            0 -1 51 -4337066 -628098984 1375818143 -610405537 -252784049
            -221650821 -85984513 -606077953</internalNodes>
          <leafValues>
            -7.3239040374755859e-01 4.2542111873626709e-01</leafValues></_>
        <_>
          <internalNodes>
            0 -1 27 -11289633 -1624820309 -544646241 -29410889
            -1156596161 453869579 2137835005 -186781195</internalNodes>
          <leafValues>
            -6.6809397935867310e-01 3.9920350909233093e-01</leafValues></_>
        <_>
          <internalNodes>
            0 -1 67 -87031902 -943177402 -796798894 -28391214 -241528672
            46137480 -1601645936 -537153096</internalNodes>
          <leafValues>
            -5.9066081047058105e-01 4.3880385160446167e-01</leafValues></_>
        <_>
          <internalNodes>
            0 -1 41 -100663723 -545263793 2121236095 2071986047 -524600
            -570426001 -1100290083 -1556373521</internalNodes>
          <leafValues>
            -3.8393729925155640e-01 6.9630509614944458e-01</leafValues></_>
        <_>
          <internalNodes>
            0 -1 4 -404832036 -604837730 -788348841 -1979835681
            1377517649 -670481726 -225029969 -1088205829</internalNodes>
          <leafValues>
            -6.6599738597869873e-01 4.1970226168632507e-01</leafValues></_>
        <_>
          <internalNodes>
            0 -1 18 -1619501570 -36732176 -721241603 -274447627
            473857794 -1144383990 2115921151 -1087391310</internalNodes>
          <leafValues>
            -6.2724179029464722e-01 3.4636244177818298e-01</leafValues></_>
        <_>
          <internalNodes>
            0 -1 32 361217530 -1591348294 -775564192 -2022719025
            813994716 -979566109 71524594 1529609659</internalNodes>
          <leafValues>
            -7.7756851911544800e-01 3.0097866058349609e-01</leafValues></_></weakClassifiers></_>
    <!-- stage 11 -->
    <_>
      <maxWeakCount>7</maxWeakCount>
      <stageThreshold>-1.1769728660583496e+00</stageThreshold>
      <weakClassifiers>
        <_>
          <internalNodes>
            0 -1 66 -2099016 1603453592 -1055771953 1540345951 -69874968
            1116356746 -183184516 -2099713</internalNodes>
          <leafValues>
            -7.1259176731109619e-01 4.0638428926467896e-01</leafValues></_>
        <_>
          <internalNodes>
            0 -1 21 -1964345090 -4849232 -788413987 -10674030
            -1951876613 -1701212021 441080456 -846256075</internalNodes>
          <leafValues>
            -5.3982681035995483e-01 5.2539211511611938e-01</leafValues></_>
        <_>
          <internalNodes>
            0 -1 29 2044006751 1934777553 -714616569 -274466959
            -265244272 -1284263935 -36178006 495974845</internalNodes>
          <leafValues>
            -5.7357609272003174e-01 4.2783716320991516e-01</leafValues></_>
        <_>
          <internalNodes>
            0 -1 8 -355319058 -100597744 -930819686 -225537830
            -880795077 -259981278 -73665909 -2511878</internalNodes>
          <leafValues>
            -4.8699432611465454e-01 4.9708479642868042e-01</leafValues></_>
        <_>
          <internalNodes>
            0 -1 43 -375254958 -167305208 -786218565 -124251570
            -209550678 -1736306688 -1476213829 -1155911493</internalNodes>
          <leafValues>
            -5.9829694032669067e-01 4.3616583943367004e-01</leafValues></_>
        <_>
          <internalNodes>
            0 -1 19 -69216434 -403738130 1369539012 -773910254
            -625350145 123443342 679658782 -71587213</internalNodes>
          <leafValues>
            -6.8441748619079590e-01 3.4698545932769775e-01</leafValues></_>
        <_>
          <internalNodes>
            0 -1 24 -1865801646 -253996991 -251657673 -674070497
            -1474166606 -356509556 -1172130832 -76406477</internalNodes>
          <leafValues>
            -5.8416467905044556e-01 4.0018859505653381e-01</leafValues></_></weakClassifiers></_>
    <!-- stage 12 -->
    <_>
      <maxWeakCount>7</maxWeakCount>
      <stageThreshold>-1.8830894231796265e+00</stageThreshold>
      <weakClassifiers>
        <_>
          <internalNodes>
            0 -1 50 -204225970 -250105762 1929548087 -208948333
            -120390913 -1442074446 -123470913 -538969089</internalNodes>
          <leafValues>
            -6.5506160259246826e-01 4.0639269351959229e-01</leafValues></_>
        <_>
          <internalNodes>
            0 -1 11 -273755649 -3214711 1079017951 -205995 -779400481
            -540034417 -1593194763 -201984142</internalNodes>
          <leafValues>
            -6.0430663824081421e-01 4.0944254398345947e-01</leafValues></_>
        <_>
          <internalNodes>
            0 -1 35 -73670928 -1083446560 -804137836 -673324545
            -1442268225 -273571669 671618357 501212155</internalNodes>
          <leafValues>
            -6.2297242879867554e-01 3.7603157758712769e-01</leafValues></_>
        <_>
          <internalNodes>
            0 -1 10 -494251306 -1345814318 -750763020 -144916396
            142850810 -905306071 25755898 -829218011</internalNodes>
          <leafValues>
            -5.5664664506912231e-01 4.1125431656837463e-01</leafValues></_>
        <_>
          <internalNodes>
            0 -1 69 -472124782 -1584492198 -804040239 -233127805
            -368406350 -1207304184 -1415908672 -74461045</internalNodes>
          <leafValues>
            -4.8877480626106262e-01 4.6055373549461365e-01</leafValues></_>
        <_>
          <internalNodes>
            0 -1 17 -216371171 -1302396845 -225384357 -226082816
            -1467850084 840867912 -1130106182 -78476626</internalNodes>
          <leafValues>
            -5.3099411725997925e-01 4.3036711215972900e-01</leafValues></_>
        <_>
          <internalNodes>
            0 -1 59 -45395900 -221052901 1359089745 -619671476
            -1584734000 -2095511543 -1291798307 -362149189</internalNodes>
          <leafValues>
            -4.8479160666465759e-01 4.7485974431037903e-01</leafValues></_></weakClassifiers></_></stages>
  <features>
    <_>
      <rect>
        0 0 3 3</rect></_>
    <_>
      <rect>
        0 0 4 5</rect></_>
    <_>
      <rect>
        0 1 3 3</rect></_>
    <_>
      <rect>
        0 1 4 4</rect></_>
    <_>
      <rect>
        0 2 2 6</rect></_>
    <_>
      <rect>
        0 2 3 6</rect></_>
    <_>
      <rect>
        0 2 6 4</rect></_>
    <_>
      <rect>
        0 8 2 4</rect></_>
    <_>
      <rect>
        0 12 1 1</rect></_>
    <_>
      <rect>
        0 14 2 2</rect></_>
    <_>
      <rect>
        1 0 3 1</rect></_>
    <_>
      <rect>
        1 0 3 4</rect></_>
    <_>
      <rect>
        1 0 6 3</rect></_>
    <_>
      <rect>
        1 2 6 6</rect></_>
    <_>
      <rect>
        1 5 6 5</rect></_>
    <_>
      <rect>
        1 14 1 1</rect></_>
    <_>
      <rect>
        1 14 2 2</rect></_>
    <_>
      <rect>
        1 15 1 1</rect></_>
    <_>
      <rect>
        2 14 3 2</rect></_>
    <_>
      <rect>
        2 14 6 2</rect></_>
    <_>
      <rect>
        2 17 4 1</rect></_>
    <_>
      <rect>
        3 0 3 1</rect></_>
    <_>
      <rect>
        3 0 5 2</rect></_>
    <_>
      <rect>
        3 11 4 3</rect></_>
    <_>
      <rect>
        3 17 1 1</rect></_>
    <_>
      <rect>
        5 0 5 6</rect></_>
    <_>
      <rect>
        6 0 3 4</rect></_>
    <_>
      <rect>
        6 1 4 4</rect></_>
    <_>
      <rect>
        8 0 3 1</rect></_>
    <_>
      <rect>
        8 3 4 5</rect></_>
    <_>
      <rect>
        8 5 4 5</rect></_>
    <_>
      <rect>
        8 7 4 3</rect></_>
    <_>
      <rect>
        8 8 4 4</rect></_>
    <_>
      <rect>
        8 14 3 2</rect></_>
    <_>
      <rect>
        10 1 3 3</rect></_>
    <_>
      <rect>
        10 14 3 2</rect></_>
    <_>
      <rect>
        11 0 3 2</rect></_>
    <_>
      <rect>
        11 1 2 2</rect></_>
    <_>
      <rect>
        11 8 3 4</rect></_>
    <_>
      <rect>
        11 14 3 2</rect></_>
    <_>
      <rect>
        12 0 1 1</rect></_>
    <_>
      <rect>
        12 0 2 1</rect></_>
    <_>
      <rect>
        12 17 2 1</rect></_>
    <_>
      <rect>
        13 0 1 1</rect></_>
    <_>
      <rect>
        13 0 2 3</rect></_>
    <_>
      <rect>
        13 1 2 1</rect></_>
    <_>
      <rect>
        13 16 1 1</rect></_>
    <_>
      <rect>
        14 0 1 1</rect></_>
    <_>
      <rect>
        14 0 2 2</rect></_>
    <_>
      <rect>
        14 0 2 3</rect></_>
    <_>
      <rect>
        14 0 2 4</rect></_>
    <_>
      <rect>
        14 1 2 3</rect></_>
    <_>
      <rect>
        14 2 2 3</rect></_>
    <_>
      <rect>
        14 2 2 4</rect></_>
    <_>
      <rect>
        14 6 2 4</rect></_>
    <_>
      <rect>
        14 11 2 3</rect></_>
    <_>
      <rect>
        14 14 2 2</rect></_>
    <_>
      <rect>
        14 16 2 1</rect></_>
    <_>
      <rect>
        14 17 1 1</rect></_>
    <_>
      <rect>
        15 1 1 1</rect></_>
    <_>
      <rect>
        15 14 1 2</rect></_>
    <_>
      <rect>
        16 14 1 2</rect></_>
    <_>
      <rect>
        16 15 1 1</rect></_>
    <_>
      <rect>
        17 0 1 3</rect></_>
    <_>
      <rect>
        17 3 1 1</rect></_>
    <_>
      <rect>
        17 4 1 1</rect></_>
    <_>
      <rect>
        17 4 1 5</rect></_>
    <_>
      <rect>
        17 13 1 1</rect></_>
    <_>
      <rect>
        17 13 1 2</rect></_>
    <_>
      <rect>
        17 14 1 1</rect></_></features></cascade>
</opencv_storage>
